<?xml version="1.0"?>
<opencv_storage>
<stage10>
  <maxWeakCount>8</maxWeakCount>
  <stageThreshold>-1.5484811067581177e+00</stageThreshold>
  <weakClassifiers>
    <_>
      <internalNodes>
        0 -1 25158 -1.6161880921572447e-03</internalNodes>
      <leafValues>
        -8.7434554100036621e-01 2.8021764755249023e-01</leafValues></_>
    <_>
      <internalNodes>
        0 -1 14629 1.6282118856906891e-02</internalNodes>
      <leafValues>
        -4.3795168399810791e-01 6.2075579166412354e-01</leafValues></_>
    <_>
      <internalNodes>
        0 -1 274022 -2.3514441636507399e-05</internalNodes>
      <leafValues>
        4.8910161852836609e-01 -4.9420058727264404e-01</leafValues></_>
    <_>
      <internalNodes>
        0 -1 21222 -4.3219211511313915e-03</internalNodes>
      <leafValues>
        -8.5943073034286499e-01 3.4853905439376831e-01</leafValues></_>
    <_>
      <internalNodes>
        0 -1 23184 -2.2684449504595250e-05</internalNodes>
      <leafValues>
        3.8668802380561829e-01 -6.2700104713439941e-01</leafValues></_>
    <_>
      <internalNodes>
        0 -1 310392 2.2636053472524509e-05</internalNodes>
      <leafValues>
        -5.0673103332519531e-01 4.5583885908126831e-01</leafValues></_>
    <_>
      <internalNodes>
        0 -1 208258 -2.2497093596030027e-05</internalNodes>
      <leafValues>
        5.2962774038314819e-01 -4.5546066761016846e-01</leafValues></_>
    <_>
      <internalNodes>
        0 -1 281650 -1.0145542546524666e-05</internalNodes>
      <leafValues>
        5.3610050678253174e-01 -4.7674697637557983e-01</leafValues></_></weakClassifiers></stage10>
</opencv_storage>
